<?xml version="1.0"?>
<opencv_storage>
<cascade type_id="opencv-haar-classifier"><size>
    24 24</size>
  <stages>
    <_>
      <trees>
        <_>
          <_>
            <feature>
              <rects>
                <_>
                  0 13 1 4 -1.</_>
                <_>
                  0 15 1 2 2.</_></rects>
              <tilted>0</tilted></feature>
            <threshold>1.2703018728643656e-04</threshold>
            <left_val>4.8339483394833987e-01</left_val>
            <right_val>-7.2413793103448321e-01</right_val></_></_>
        <_>
          <_>
            <feature>
              <rects>
                <_>
                  13 4 3 11 -1.</_>
                <_>
                  14 4 1 11 3.</_></rects>
              <tilted>0</tilted></feature>
            <threshold>6.1401082202792168e-03</threshold>
            <left_val>-3.0362570856199556e-01</left_val>
            <right_val>9.0831960613595575e-01</right_val></_></_>
        <_>
          <_>
            <feature>
              <rects>
                <_>
                  23 11 1 4 -1.</_>
                <_>
                  23 13 1 2 2.</_></rects>
              <tilted>0</tilted></feature>
            <threshold>-1.1669311788864434e-04</threshold>
            <left_val>-7.6505971866959499e-01</left_val>
            <right_val>3.8097386302597402e-01</right_val></_></_>
        <_>
          <_>
            <feature>
              <rects>
                <_>
                  7 2 9 8 -1.</_>
                <_>
                  10 2 3 8 3.</_></rects>
              <tilted>0</tilted></feature>
            <threshold>3.7498965859413147e-02</threshold>
            <left_val>-3.4000057034158854e-01</left_val>
            <right_val>8.6477545713004522e-01</right_val></_></_>
        <_>
          <_>
            <feature>
              <rects>
                <_>
                  0 1 1 22 -1.</_>
                <_>
                  0 12 1 11 2.</_></rects>
              <tilted>0</tilted></feature>
            <threshold>5.7842181995511055e-03</threshold>
            <left_val>3.8227005628899691e-01</left_val>
            <right_val>-7.9744541376166900e-01</right_val></_></_></trees>
      <stage_threshold>-6.0452026128768921e-01</stage_threshold>
      <parent>-1</parent>
      <next>-1</next></_>
    <_>
      <trees>
        <_>
          <_>
            <feature>
              <rects>
                <_>
                  0 3 1 18 -1.</_>
                <_>
                  0 12 1 9 2.</_></rects>
              <tilted>0</tilted></feature>
            <threshold>-1.3589053414762020e-03</threshold>
            <left_val>-7.7319587628866016e-01</left_val>
            <right_val>7.9279279279279302e-01</right_val></_></_>
        <_>
          <_>
            <feature>
              <rects>
                <_>
                  0 13 1 4 -1.</_>
                <_>
                  0 15 1 2 2.</_></rects>
              <tilted>0</tilted></feature>
            <threshold>-7.1506336098536849e-05</threshold>
            <left_val>-6.5409804684731843e-01</left_val>
            <right_val>6.6156111744633861e-01</right_val></_></_>
        <_>
          <_>
            <feature>
              <rects>
                <_>
                  18 2 2 22 -1.</_>
                <_>
                  18 13 2 11 2.</_></rects>
              <tilted>0</tilted></feature>
            <threshold>-1.7138751223683357e-02</threshold>
            <left_val>-8.4094436334422129e-01</left_val>
            <right_val>4.6515942362507645e-01</right_val></_></_></trees>
      <stage_threshold>-9.6213448047637939e-01</stage_threshold>
      <parent>0</parent>
      <next>-1</next></_>
    <_>
      <trees>
        <_>
          <_>
            <feature>
              <rects>
                <_>
                  0 2 23 22 -1.</_>
                <_>
                  0 13 23 11 2.</_></rects>
              <tilted>0</tilted></feature>
            <threshold>-1.4152067899703979e-01</threshold>
            <left_val>-8.6250000000000016e-01</left_val>
            <right_val>6.4062500000000033e-01</right_val></_></_>
        <_>
          <_>
            <feature>
              <rects>
                <_>
                  0 20 4 4 -1.</_>
                <_>
                  0 22 4 2 2.</_></rects>
              <tilted>0</tilted></feature>
            <threshold>-6.9701264146715403e-04</threshold>
            <left_val>-7.4937893468002126e-01</left_val>
            <right_val>5.0407510725421822e-01</right_val></_></_>
        <_>
          <_>
            <feature>
              <rects>
                <_>
                  23 2 1 4 -1.</_>
                <_>
                  23 4 1 2 2.</_></rects>
              <tilted>0</tilted></feature>
            <threshold>-2.6254093972966075e-04</threshold>
            <left_val>-7.9322671173474368e-01</left_val>
            <right_val>3.3459192129919307e-01</right_val></_></_>
        <_>
          <_>
            <feature>
              <rects>
                <_>
                  0 7 12 13 -1.</_>
                <_>
                  4 7 4 13 3.</_></rects>
              <tilted>0</tilted></feature>
            <threshold>-7.9588539898395538e-02</threshold>
            <left_val>9.5830397541356704e-01</left_val>
            <right_val>-3.3072469401745530e-01</right_val></_></_></trees>
      <stage_threshold>-1.2327053546905518e+00</stage_threshold>
      <parent>1</parent>
      <next>-1</next></_>
    <_>
      <trees>
        <_>
          <_>
            <feature>
              <rects>
                <_>
                  0 13 1 4 -1.</_>
                <_>
                  0 15 1 2 2.</_></rects>
              <tilted>0</tilted></feature>
            <threshold>-1.3558968203142285e-04</threshold>
            <left_val>-7.8461538461538494e-01</left_val>
            <right_val>4.4755244755244800e-01</right_val></_></_>
        <_>
          <_>
            <feature>
              <rects>
                <_>
                  0 1 24 20 -1.</_>
                <_>
                  12 1 12 20 2.</_></rects>
              <tilted>0</tilted></feature>
            <threshold>1.3161620497703552e-01</threshold>
            <left_val>3.2192145370977560e-01</left_val>
            <right_val>-8.1709651879835721e-01</right_val></_></_>
        <_>
          <_>
            <feature>
              <rects>
                <_>
                  2 7 22 6 -1.</_>
                <_>
                  13 7 11 6 2.</_></rects>
              <tilted>0</tilted></feature>
            <threshold>-5.8657683432102203e-02</threshold>
            <left_val>-7.7843265460061217e-01</left_val>
            <right_val>3.9147044873356018e-01</right_val></_></_>
        <_>
          <_>
            <feature>
              <rects>
                <_>
                  11 22 2 2 -1.</_>
                <_>
                  12 22 1 2 2.</_></rects>
              <tilted>0</tilted></feature>
            <threshold>1.9926302775274962e-04</threshold>
            <left_val>2.6265053033861907e-01</left_val>
            <right_val>-8.3876020242265326e-01</right_val></_></_>
        <_>
          <_>
            <feature>
              <rects>
                <_>
                  11 23 2 1 -1.</_>
                <_>
                  12 23 1 1 2.</_></rects>
              <tilted>0</tilted></feature>
            <threshold>-8.8859000243246555e-05</threshold>
            <left_val>-8.1644754935990638e-01</left_val>
            <right_val>2.7684792460371993e-01</right_val></_></_>
        <_>
          <_>
            <feature>
              <rects>
                <_>
                  0 13 1 4 -1.</_>
                <_>
                  0 15 1 2 2.</_></rects>
              <tilted>0</tilted></feature>
            <threshold>1.9322302250657231e-04</threshold>
            <left_val>2.8797380254825977e-01</left_val>
            <right_val>-8.2186564619547786e-01</right_val></_></_></trees>
      <stage_threshold>-4.1365432739257813e-01</stage_threshold>
      <parent>2</parent>
      <next>-1</next></_>
    <_>
      <trees>
        <_>
          <_>
            <feature>
              <rects>
                <_>
                  23 1 1 22 -1.</_>
                <_>
                  23 12 1 11 2.</_></rects>
              <tilted>0</tilted></feature>
            <threshold>4.1515836492180824e-03</threshold>
            <left_val>4.2553191489361752e-01</left_val>
            <right_val>-7.0149253731343342e-01</right_val></_></_>
        <_>
          <_>
            <feature>
              <rects>
                <_>
                  23 4 1 16 -1.</_>
                <_>
                  23 12 1 8 2.</_></rects>
              <tilted>0</tilted></feature>
            <threshold>-1.0261738207191229e-03</threshold>
            <left_val>-7.5640094791057766e-01</left_val>
            <right_val>3.1899317390452692e-01</right_val></_></_>
        <_>
          <_>
            <feature>
              <rects>
                <_>
                  0 14 1 3 -1.</_>
                <_>
                  0 15 1 1 3.</_></rects>
              <tilted>0</tilted></feature>
            <threshold>-4.3563173676375300e-05</threshold>
            <left_val>-6.9910800545370466e-01</left_val>
            <right_val>2.8063215349130466e-01</right_val></_></_>
        <_>
          <_>
            <feature>
              <rects>
                <_>
                  18 23 4 1 -1.</_>
                <_>
                  20 23 2 1 2.</_></rects>
              <tilted>0</tilted></feature>
            <threshold>2.3844197858124971e-04</threshold>
            <left_val>2.3683810477243886e-01</left_val>
            <right_val>-7.5099307578020091e-01</right_val></_></_>
        <_>
          <_>
            <feature>
              <rects>
                <_>
                  18 23 4 1 -1.</_>
                <_>
                  20 23 2 1 2.</_></rects>
              <tilted>0</tilted></feature>
            <threshold>-1.5442573931068182e-04</threshold>
            <left_val>-6.2613285841969091e-01</left_val>
            <right_val>3.8090558974804828e-01</right_val></_></_>
        <_>
          <_>
            <feature>
              <rects>
                <_>
                  2 6 6 6 -1.</_>
                <_>
                  4 6 2 6 3.</_></rects>
              <tilted>0</tilted></feature>
            <threshold>-1.2249109335243702e-02</threshold>
            <left_val>7.3028377684309287e-01</left_val>
            <right_val>-3.3464222183987191e-01</right_val></_></_>
        <_>
          <_>
            <feature>
              <rects>
                <_>
                  1 9 20 15 -1.</_>
                <_>
                  11 9 10 15 2.</_></rects>
              <tilted>0</tilted></feature>
            <threshold>1.1949479579925537e-01</threshold>
            <left_val>2.6421621725113414e-01</left_val>
            <right_val>-7.4983070193897794e-01</right_val></_></_></trees>
      <stage_threshold>-5.6859642267227173e-01</stage_threshold>
      <parent>3</parent>
      <next>-1</next></_>
    <_>
      <trees>
        <_>
          <_>
            <feature>
              <rects>
                <_>
                  3 0 18 1 -1.</_>
                <_>
                  12 0 9 1 2.</_></rects>
              <tilted>0</tilted></feature>
            <threshold>-2.7070690412074327e-03</threshold>
            <left_val>-7.2649572649572702e-01</left_val>
            <right_val>3.7123745819398046e-01</right_val></_></_>
        <_>
          <_>
            <feature>
              <rects>
                <_>
                  3 0 18 1 -1.</_>
                <_>
                  12 0 9 1 2.</_></rects>
              <tilted>0</tilted></feature>
            <threshold>1.9948352128267288e-03</threshold>
            <left_val>3.4284536969006346e-01</left_val>
            <right_val>-6.7485783598373883e-01</right_val></_></_>
        <_>
          <_>
            <feature>
              <rects>
                <_>
                  7 5 6 3 -1.</_>
                <_>
                  10 5 3 3 2.</_></rects>
              <tilted>0</tilted></feature>
            <threshold>1.0432315990328789e-02</threshold>
            <left_val>-3.0635173330108317e-01</left_val>
            <right_val>7.4038150326158014e-01</right_val></_></_>
        <_>
          <_>
            <feature>
              <rects>
                <_>
                  0 13 1 6 -1.</_>
                <_>
                  0 16 1 3 2.</_></rects>
              <tilted>0</tilted></feature>
            <threshold>-7.1657261287327856e-05</threshold>
            <left_val>-6.2294956220872821e-01</left_val>
            <right_val>3.3457229317178949e-01</right_val></_></_>
        <_>
          <_>
            <feature>
              <rects>
                <_>
                  13 8 6 10 -1.</_>
                <_>
                  15 8 2 10 3.</_></rects>
              <tilted>0</tilted></feature>
            <threshold>1.9888803362846375e-02</threshold>
            <left_val>-3.6326880630450925e-01</left_val>
            <right_val>7.2560638667061506e-01</right_val></_></_>
        <_>
          <_>
            <feature>
              <rects>
                <_>
                  0 3 1 18 -1.</_>
                <_>
                  0 9 1 6 3.</_></rects>
              <tilted>0</tilted></feature>
            <threshold>-4.6375422971323133e-04</threshold>
            <left_val>-5.3557338308766200e-01</left_val>
            <right_val>4.5865899017299061e-01</right_val></_></_>
        <_>
          <_>
            <feature>
              <rects>
                <_>
                  2 0 7 14 -1.</_>
                <_>
                  2 7 7 7 2.</_></rects>
              <tilted>0</tilted></feature>
            <threshold>-2.3187964688986540e-04</threshold>
            <left_val>4.2735118844627834e-01</left_val>
            <right_val>-5.1306415253450921e-01</right_val></_></_>
        <_>
          <_>
            <feature>
              <rects>
                <_>
                  11 14 9 3 -1.</_>
                <_>
                  14 14 3 3 3.</_></rects>
              <tilted>0</tilted></feature>
            <threshold>-2.0611021667718887e-02</threshold>
            <left_val>7.9100638844095428e-01</left_val>
            <right_val>-2.6585528562969885e-01</right_val></_></_></trees>
      <stage_threshold>-1.0127460956573486e+00</stage_threshold>
      <parent>4</parent>
      <next>-1</next></_>
    <_>
      <trees>
        <_>
          <_>
            <feature>
              <rects>
                <_>
                  14 1 6 14 -1.</_>
                <_>
                  16 1 2 14 3.</_></rects>
              <tilted>0</tilted></feature>
            <threshold>-1.3724780641496181e-02</threshold>
            <left_val>7.4045801526717603e-01</left_val>
            <right_val>-2.4912280701754444e-01</right_val></_></_>
        <_>
          <_>
            <feature>
              <rects>
                <_>
                  11 11 6 12 -1.</_>
                <_>
                  13 11 2 12 3.</_></rects>
              <tilted>0</tilted></feature>
            <threshold>-7.3263570666313171e-03</threshold>
            <left_val>6.4920107804558602e-01</left_val>
            <right_val>-3.0477173297316301e-01</right_val></_></_>
        <_>
          <_>
            <feature>
              <rects>
                <_>
                  11 14 6 5 -1.</_>
                <_>
                  13 14 2 5 3.</_></rects>
              <tilted>0</tilted></feature>
            <threshold>1.2550459243357182e-02</threshold>
            <left_val>-2.6756194200663858e-01</left_val>
            <right_val>8.4476779681714542e-01</right_val></_></_>
        <_>
          <_>
            <feature>
              <rects>
                <_>
                  23 11 1 4 -1.</_>
                <_>
                  23 13 1 2 2.</_></rects>
              <tilted>0</tilted></feature>
            <threshold>7.2541370172984898e-05</threshold>
            <left_val>3.8009196482539620e-01</left_val>
            <right_val>-5.8124916421474426e-01</right_val></_></_>
        <_>
          <_>
            <feature>
              <rects>
                <_>
                  13 7 6 2 -1.</_>
                <_>
                  15 7 2 2 3.</_></rects>
              <tilted>0</tilted></feature>
            <threshold>3.4525357186794281e-03</threshold>
            <left_val>-3.8823911992008725e-01</left_val>
            <right_val>6.7840066500443030e-01</right_val></_></_>
        <_>
          <_>
            <feature>
              <rects>
                <_>
                  6 12 6 6 -1.</_>
                <_>
                  6 12 3 3 2.</_>
                <_>
                  9 15 3 3 2.</_></rects>
              <tilted>0</tilted></feature>
            <threshold>1.1260900646448135e-03</threshold>
            <left_val>-2.5864579807301702e-01</left_val>
            <right_val>6.8737615228028281e-01</right_val></_></_>
        <_>
          <_>
            <feature>
              <rects>
                <_>
                  0 12 1 3 -1.</_>
                <_>
                  0 13 1 1 3.</_></rects>
              <tilted>0</tilted></feature>
            <threshold>1.7978809773921967e-04</threshold>
            <left_val>2.2159955131986023e-01</left_val>
            <right_val>-8.2773624828827264e-01</right_val></_></_>
        <_>
          <_>
            <feature>
              <rects>
                <_>
                  6 6 3 15 -1.</_>
                <_>
                  7 6 1 15 3.</_></rects>
              <tilted>0</tilted></feature>
            <threshold>3.5164407454431057e-03</threshold>
            <left_val>-3.5251300825072313e-01</left_val>
            <right_val>6.6434847112467810e-01</right_val></_></_>
        <_>
          <_>
            <feature>
              <rects>
                <_>
                  2 3 6 21 -1.</_>
                <_>
                  2 10 6 7 3.</_></rects>
              <tilted>0</tilted></feature>
            <threshold>-3.6295605823397636e-03</threshold>
            <left_val>5.4050505118601588e-01</left_val>
            <right_val>-4.0349358829588450e-01</right_val></_></_></trees>
      <stage_threshold>-7.7402085065841675e-01</stage_threshold>
      <parent>5</parent>
      <next>-1</next></_>
    <_>
      <trees>
        <_>
          <_>
            <feature>
              <rects>
                <_>
                  5 23 2 1 -1.</_>
                <_>
                  6 23 1 1 2.</_></rects>
              <tilted>0</tilted></feature>
            <threshold>-1.3553834287449718e-04</threshold>
            <left_val>-7.5700934579439305e-01</left_val>
            <right_val>3.4627831715210405e-01</right_val></_></_>
        <_>
          <_>
            <feature>
              <rects>
                <_>
                  23 8 1 2 -1.</_>
                <_>
                  23 9 1 1 2.</_></rects>
              <tilted>0</tilted></feature>
            <threshold>1.3739454152528197e-04</threshold>
            <left_val>2.2581326797907816e-01</left_val>
            <right_val>-8.6794065563064071e-01</right_val></_></_>
        <_>
          <_>
            <feature>
              <rects>
                <_>
                  23 7 1 4 -1.</_>
                <_>
                  23 9 1 2 2.</_></rects>
              <tilted>0</tilted></feature>
            <threshold>-1.4511831977870315e-04</threshold>
            <left_val>-7.0016379682774266e-01</left_val>
            <right_val>3.0311288164863359e-01</right_val></_></_>
        <_>
          <_>
            <feature>
              <rects>
                <_>
                  4 22 16 1 -1.</_>
                <_>
                  12 22 8 1 2.</_></rects>
              <tilted>0</tilted></feature>
            <threshold>-4.9960622563958168e-03</threshold>
            <left_val>-7.6111196246521706e-01</left_val>
            <right_val>2.4119863338414599e-01</right_val></_></_>
        <_>
          <_>
            <feature>
              <rects>
                <_>
                  4 23 16 1 -1.</_>
                <_>
                  12 23 8 1 2.</_></rects>
              <tilted>0</tilted></feature>
            <threshold>5.5836024694144726e-04</threshold>
            <left_val>3.5347499958535711e-01</left_val>
            <right_val>-6.1310632438876755e-01</right_val></_></_>
        <_>
          <_>
            <feature>
              <rects>
                <_>
                  7 1 4 20 -1.</_>
                <_>
                  9 1 2 20 2.</_></rects>
              <tilted>0</tilted></feature>
            <threshold>4.0762670338153839e-02</threshold>
            <left_val>-2.7125452181460996e-01</left_val>
            <right_val>8.9834948594150976e-01</right_val></_></_></trees>
      <stage_threshold>-8.7124538421630859e-01</stage_threshold>
      <parent>6</parent>
      <next>-1</next></_>
    <_>
      <trees>
        <_>
          <_>
            <feature>
              <rects>
                <_>
                  14 7 10 8 -1.</_>
                <_>
                  19 7 5 8 2.</_></rects>
              <tilted>0</tilted></feature>
            <threshold>4.0273964405059814e-02</threshold>
            <left_val>-2.2261484098939988e-01</left_val>
            <right_val>6.6917293233082764e-01</right_val></_></_>
        <_>
          <_>
            <feature>
              <rects>
                <_>
                  5 23 2 1 -1.</_>
                <_>
                  6 23 1 1 2.</_></rects>
              <tilted>0</tilted></feature>
            <threshold>3.4359869459876791e-05</threshold>
            <left_val>2.8949943406296602e-01</left_val>
            <right_val>-6.2895168996543116e-01</right_val></_></_>
        <_>
          <_>
            <feature>
              <rects>
                <_>
                  9 0 15 6 -1.</_>
                <_>
                  9 3 15 3 2.</_></rects>
              <tilted>0</tilted></feature>
            <threshold>-5.2486294880509377e-03</threshold>
            <left_val>4.5971520081806277e-01</left_val>
            <right_val>-3.8959879174182344e-01</right_val></_></_>
        <_>
          <_>
            <feature>
              <rects>
                <_>
                  23 11 1 2 -1.</_>
                <_>
                  23 12 1 1 2.</_></rects>
              <tilted>0</tilted></feature>
            <threshold>-7.1118061896413565e-05</threshold>
            <left_val>-7.3423014812230392e-01</left_val>
            <right_val>2.1216747073088446e-01</right_val></_></_>
        <_>
          <_>
            <feature>
              <rects>
                <_>
                  11 7 6 8 -1.</_>
                <_>
                  11 7 3 4 2.</_>
                <_>
                  14 11 3 4 2.</_></rects>
              <tilted>0</tilted></feature>
            <threshold>1.6506901010870934e-03</threshold>
            <left_val>-3.4237983210339457e-01</left_val>
            <right_val>4.6623407032970532e-01</right_val></_></_>
        <_>
          <_>
            <feature>
              <rects>
                <_>
                  5 8 6 3 -1.</_>
                <_>
                  7 8 2 3 3.</_></rects>
              <tilted>0</tilted></feature>
            <threshold>8.5718696936964989e-03</threshold>
            <left_val>-2.4085571763866501e-01</left_val>
            <right_val>7.1288047498980955e-01</right_val></_></_>
        <_>
          <_>
            <feature>
              <rects>
                <_>
                  0 4 1 3 -1.</_>
                <_>
                  0 5 1 1 3.</_></rects>
              <tilted>0</tilted></feature>
            <threshold>3.4909817622974515e-04</threshold>
            <left_val>1.7721351293107396e-01</left_val>
            <right_val>-8.4993947746423915e-01</right_val></_></_>
        <_>
          <_>
            <feature>
              <rects>
                <_>
                  2 8 20 16 -1.</_>
                <_>
                  2 8 10 8 2.</_>
                <_>
                  12 16 10 8 2.</_></rects>
              <tilted>0</tilted></feature>
            <threshold>-4.9083065241575241e-02</threshold>
            <left_val>-6.9517017327809483e-01</left_val>
            <right_val>1.8636075178287423e-01</right_val></_></_></trees>
      <stage_threshold>-5.4140853881835938e-01</stage_threshold>
      <parent>7</parent>
      <next>-1</next></_>
    <_>
      <trees>
        <_>
          <_>
            <feature>
              <rects>
                <_>
                  0 4 24 20 -1.</_>
                <_>
                  0 4 12 10 2.</_>
                <_>
                  12 14 12 10 2.</_></rects>
              <tilted>0</tilted></feature>
            <threshold>6.5619468688964844e-02</threshold>
            <left_val>3.4666666666666718e-01</left_val>
            <right_val>-6.7241379310344884e-01</right_val></_></_>
        <_>
          <_>
            <feature>
              <rects>
                <_>
                  0 3 8 12 -1.</_>
                <_>
                  4 3 4 12 2.</_></rects>
              <tilted>0</tilted></feature>
            <threshold>-3.2405555248260498e-02</threshold>
            <left_val>5.7846494772836010e-01</left_val>
            <right_val>-3.2451962163822223e-01</right_val></_></_>
        <_>
          <_>
            <feature>
              <rects>
                <_>
                  8 23 12 1 -1.</_>
                <_>
                  14 23 6 1 2.</_></rects>
              <tilted>0</tilted></feature>
            <threshold>5.8566185180097818e-04</threshold>
            <left_val>2.7966946628546874e-01</left_val>
            <right_val>-5.8604758369426613e-01</right_val></_></_>
        <_>
          <_>
            <feature>
              <rects>
                <_>
                  22 1 2 22 -1.</_>
                <_>
                  22 12 2 11 2.</_></rects>
              <tilted>0</tilted></feature>
            <threshold>-8.1871524453163147e-03</threshold>
            <left_val>-7.1833292552842642e-01</left_val>
            <right_val>2.0354274768762659e-01</right_val></_></_>
        <_>
          <_>
            <feature>
              <rects>
                <_>
                  10 4 11 9 -1.</_>
                <_>
                  10 7 11 3 3.</_></rects>
              <tilted>0</tilted></feature>
            <threshold>8.0238878726959229e-03</threshold>
            <left_val>-3.3780546442475529e-01</left_val>
            <right_val>4.7349521718631488e-01</right_val></_></_>
        <_>
          <_>
            <feature>
              <rects>
                <_>
                  9 7 7 9 -1.</_>
                <_>
                  9 10 7 3 3.</_></rects>
              <tilted>0</tilted></feature>
            <threshold>1.9605271518230438e-02</threshold>
            <left_val>-3.0772822601159511e-01</left_val>
            <right_val>7.8963611072204498e-01</right_val></_></_>
        <_>
          <_>
            <feature>
              <rects>
                <_>
                  14 18 5 6 -1.</_>
                <_>
                  14 21 5 3 2.</_></rects>
              <tilted>0</tilted></feature>
            <threshold>6.9089839234948158e-03</threshold>
            <left_val>-2.1351690406949622e-01</left_val>
            <right_val>6.1427248355279707e-01</right_val></_></_>
        <_>
          <_>
            <feature>
              <rects>
                <_>
                  0 14 1 4 -1.</_>
                <_>
                  0 16 1 2 2.</_></rects>
              <tilted>0</tilted></feature>
            <threshold>-2.3200744180940092e-04</threshold>
            <left_val>-7.6536932080499320e-01</left_val>
            <right_val>1.9759612309158173e-01</right_val></_></_></trees>
      <stage_threshold>-4.9905103445053101e-01</stage_threshold>
      <parent>8</parent>
      <next>-1</next></_>
    <_>
      <trees>
        <_>
          <_>
            <feature>
              <rects>
                <_>
                  0 4 1 3 -1.</_>
                <_>
                  0 5 1 1 3.</_></rects>
              <tilted>0</tilted></feature>
            <threshold>-6.6086598963011056e-05</threshold>
            <left_val>-7.1666666666666712e-01</left_val>
            <right_val>3.7837837837837884e-01</right_val></_></_>
        <_>
          <_>
            <feature>
              <rects>
                <_>
                  23 11 1 9 -1.</_>
                <_>
                  23 14 1 3 3.</_></rects>
              <tilted>0</tilted></feature>
            <threshold>-1.4242134056985378e-04</threshold>
            <left_val>-6.5473876147520305e-01</left_val>
            <right_val>2.8213072527756156e-01</right_val></_></_>
        <_>
          <_>
            <feature>
              <rects>
                <_>
                  10 11 3 6 -1.</_>
                <_>
                  10 14 3 3 2.</_></rects>
              <tilted>0</tilted></feature>
            <threshold>1.0703575797379017e-02</threshold>
            <left_val>-2.7692530021317419e-01</left_val>
            <right_val>7.2743382974796289e-01</right_val></_></_>
        <_>
          <_>
            <feature>
              <rects>
                <_>
                  0 3 1 18 -1.</_>
                <_>
                  0 12 1 9 2.</_></rects>
              <tilted>0</tilted></feature>
            <threshold>1.8814139184542000e-04</threshold>
            <left_val>3.9169105919330072e-01</left_val>
            <right_val>-5.0202718713146444e-01</right_val></_></_>
        <_>
          <_>
            <feature>
              <rects>
                <_>
                  0 0 1 24 -1.</_>
                <_>
                  0 12 1 12 2.</_></rects>
              <tilted>0</tilted></feature>
            <threshold>-9.0124970301985741e-04</threshold>
            <left_val>-6.1117489459623475e-01</left_val>
            <right_val>3.3251847069909241e-01</right_val></_></_>
        <_>
          <_>
            <feature>
              <rects>
                <_>
                  1 1 1 22 -1.</_>
                <_>
                  1 12 1 11 2.</_></rects>
              <tilted>0</tilted></feature>
            <threshold>6.8133219610899687e-04</threshold>
            <left_val>3.4081564140399573e-01</left_val>
            <right_val>-4.5997805138748932e-01</right_val></_></_>
        <_>
          <_>
            <feature>
              <rects>
                <_>
                  1 19 1 4 -1.</_>
                <_>
                  1 21 1 2 2.</_></rects>
              <tilted>0</tilted></feature>
            <threshold>-1.0667352762538940e-04</threshold>
            <left_val>-6.7567838240521483e-01</left_val>
            <right_val>2.1065046360053000e-01</right_val></_></_>
        <_>
          <_>
            <feature>
              <rects>
                <_>
                  1 0 2 1 -1.</_>
                <_>
                  2 0 1 1 2.</_></rects>
              <tilted>0</tilted></feature>
            <threshold>1.9065680680796504e-04</threshold>
            <left_val>2.0648281862800019e-01</left_val>
            <right_val>-8.7168528013871660e-01</right_val></_></_></trees>
      <stage_threshold>-9.2381471395492554e-01</stage_threshold>
      <parent>9</parent>
      <next>-1</next></_>
    <_>
      <trees>
        <_>
          <_>
            <feature>
              <rects>
                <_>
                  0 23 24 1 -1.</_>
                <_>
                  12 23 12 1 2.</_></rects>
              <tilted>0</tilted></feature>
            <threshold>-5.8307629078626633e-03</threshold>
            <left_val>-6.8518518518518590e-01</left_val>
            <right_val>3.2467532467532517e-01</right_val></_></_>
        <_>
          <_>
            <feature>
              <rects>
                <_>
                  1 23 22 1 -1.</_>
                <_>
                  12 23 11 1 2.</_></rects>
              <tilted>0</tilted></feature>
            <threshold>1.3300081482157111e-03</threshold>
            <left_val>2.5799838642549033e-01</left_val>
            <right_val>-6.9588370153721402e-01</right_val></_></_>
        <_>
          <_>
            <feature>
              <rects>
                <_>
                  3 10 11 14 -1.</_>
                <_>
                  3 17 11 7 2.</_></rects>
              <tilted>0</tilted></feature>
            <threshold>4.6290516853332520e-02</threshold>
            <left_val>-3.8787648876850678e-01</left_val>
            <right_val>4.3577168971356295e-01</right_val></_></_>
        <_>
          <_>
            <feature>
              <rects>
                <_>
                  8 0 6 1 -1.</_>
                <_>
                  10 0 2 1 3.</_></rects>
              <tilted>0</tilted></feature>
            <threshold>-5.9295335086062551e-04</threshold>
            <left_val>-6.9014350346670639e-01</left_val>
            <right_val>2.2781861407025816e-01</right_val></_></_>
        <_>
          <_>
            <feature>
              <rects>
                <_>
                  0 4 24 20 -1.</_>
                <_>
                  12 4 12 20 2.</_></rects>
              <tilted>0</tilted></feature>
            <threshold>-1.3617463409900665e-01</threshold>
            <left_val>-7.3606260808012192e-01</left_val>
            <right_val>2.3465353714178139e-01</right_val></_></_>
        <_>
          <_>
            <feature>
              <rects>
                <_>
                  11 0 9 6 -1.</_>
                <_>
                  11 2 9 2 3.</_></rects>
              <tilted>0</tilted></feature>
            <threshold>-2.0276125520467758e-02</threshold>
            <left_val>7.3752501612882648e-01</left_val>
            <right_val>-2.7789420628198530e-01</right_val></_></_>
        <_>
          <_>
            <feature>
              <rects>
                <_>
                  8 0 8 1 -1.</_>
                <_>
                  12 0 4 1 2.</_></rects>
              <tilted>0</tilted></feature>
            <threshold>-2.5021089240908623e-03</threshold>
            <left_val>-7.1627035938252503e-01</left_val>
            <right_val>2.4331307931729923e-01</right_val></_></_>
        <_>
          <_>
            <feature>
              <rects>
                <_>
                  15 1 2 4 -1.</_>
                <_>
                  15 1 1 2 2.</_>
                <_>
                  16 3 1 2 2.</_></rects>
              <tilted>0</tilted></feature>
            <threshold>-1.0440187907079235e-05</threshold>
            <left_val>4.4173817911558461e-01</left_val>
            <right_val>-3.7823026144030703e-01</right_val></_></_>
        <_>
          <_>
            <feature>
              <rects>
                <_>
                  9 9 2 2 -1.</_>
                <_>
                  10 9 1 2 2.</_></rects>
              <tilted>0</tilted></feature>
            <threshold>1.0044826922239736e-05</threshold>
            <left_val>-2.9816007983275766e-01</left_val>
            <right_val>5.8623734129356808e-01</right_val></_></_></trees>
      <stage_threshold>-1.0075842142105103e+00</stage_threshold>
      <parent>10</parent>
      <next>-1</next></_>
    <_>
      <trees>
        <_>
          <_>
            <feature>
              <rects>
                <_>
                  0 10 1 12 -1.</_>
                <_>
                  0 14 1 4 3.</_></rects>
              <tilted>0</tilted></feature>
            <threshold>-8.2049577031284571e-04</threshold>
            <left_val>-7.2549019607843190e-01</left_val>
            <right_val>3.1847133757961832e-01</right_val></_></_>
        <_>
          <_>
            <feature>
              <rects>
                <_>
                  18 3 6 11 -1.</_>
                <_>
                  21 3 3 11 2.</_></rects>
              <tilted>0</tilted></feature>
            <threshold>4.9069598317146301e-02</threshold>
            <left_val>-2.1570509305090571e-01</left_val>
            <right_val>8.1915710582001555e-01</right_val></_></_>
        <_>
          <_>
            <feature>
              <rects>
                <_>
                  0 23 24 1 -1.</_>
                <_>
                  12 23 12 1 2.</_></rects>
              <tilted>0</tilted></feature>
            <threshold>1.4294629218056798e-03</threshold>
            <left_val>2.5552304263758580e-01</left_val>
            <right_val>-5.4410884342448695e-01</right_val></_></_>
        <_>
          <_>
            <feature>
              <rects>
                <_>
                  10 16 6 1 -1.</_>
                <_>
                  12 16 2 1 3.</_></rects>
              <tilted>0</tilted></feature>
            <threshold>2.4353563785552979e-03</threshold>
            <left_val>-2.2814078179951111e-01</left_val>
            <right_val>5.9402438034492744e-01</right_val></_></_>
        <_>
          <_>
            <feature>
              <rects>
                <_>
                  13 8 6 2 -1.</_>
                <_>
                  15 8 2 2 3.</_></rects>
              <tilted>0</tilted></feature>
            <threshold>4.7316858544945717e-03</threshold>
            <left_val>-2.5811220669345086e-01</left_val>
            <right_val>6.4784772068987151e-01</right_val></_></_>
        <_>
          <_>
            <feature>
              <rects>
                <_>
                  1 6 3 12 -1.</_>
                <_>
                  1 12 3 6 2.</_></rects>
              <tilted>0</tilted></feature>
            <threshold>2.2555314353667200e-04</threshold>
            <left_val>2.8141464878033090e-01</left_val>
            <right_val>-5.1932492611653547e-01</right_val></_></_>
        <_>
          <_>
            <feature>
              <rects>
                <_>
                  2 20 16 2 -1.</_>
                <_>
                  2 20 8 1 2.</_>
                <_>
                  10 21 8 1 2.</_></rects>
              <tilted>0</tilted></feature>
            <threshold>6.3366627728100866e-05</threshold>
            <left_val>-2.6198753226380805e-01</left_val>
            <right_val>5.2369566435762627e-01</right_val></_></_></trees>
      <stage_threshold>-9.0816849470138550e-01</stage_threshold>
      <parent>11</parent>
      <next>-1</next></_>
    <_>
      <trees>
        <_>
          <_>
            <feature>
              <rects>
                <_>
                  23 6 1 6 -1.</_>
                <_>
                  23 8 1 2 3.</_></rects>
              <tilted>0</tilted></feature>
            <threshold>4.8685743240639567e-04</threshold>
            <left_val>2.6409495548961476e-01</left_val>
            <right_val>-7.9746835443038033e-01</right_val></_></_>
        <_>
          <_>
            <feature>
              <rects>
                <_>
                  2 12 12 12 -1.</_>
                <_>
                  2 18 12 6 2.</_></rects>
              <tilted>0</tilted></feature>
            <threshold>3.1482033431529999e-02</threshold>
            <left_val>-4.0007814566717537e-01</left_val>
            <right_val>3.9728223354833336e-01</right_val></_></_>
        <_>
          <_>
            <feature>
              <rects>
                <_>
                  0 0 24 14 -1.</_>
                <_>
                  12 0 12 14 2.</_></rects>
              <tilted>0</tilted></feature>
            <threshold>6.5454840660095215e-02</threshold>
            <left_val>2.9672926064274618e-01</left_val>
            <right_val>-6.1561111904723809e-01</right_val></_></_>
        <_>
          <_>
            <feature>
              <rects>
                <_>
                  1 23 3 1 -1.</_>
                <_>
                  2 23 1 1 3.</_></rects>
              <tilted>0</tilted></feature>
            <threshold>1.3463225332088768e-04</threshold>
            <left_val>1.7579096486459012e-01</left_val>
            <right_val>-7.8788330678578566e-01</right_val></_></_>
        <_>
          <_>
            <feature>
              <rects>
                <_>
                  6 4 8 4 -1.</_>
                <_>
                  10 4 4 4 2.</_></rects>
              <tilted>0</tilted></feature>
            <threshold>1.4009684324264526e-02</threshold>
            <left_val>-3.4893655750772284e-01</left_val>
            <right_val>4.9309505871131648e-01</right_val></_></_>
        <_>
          <_>
            <feature>
              <rects>
                <_>
                  22 23 2 1 -1.</_>
                <_>
                  23 23 1 1 2.</_></rects>
              <tilted>0</tilted></feature>
            <threshold>-1.9688229076564312e-04</threshold>
            <left_val>-7.9355495624562666e-01</left_val>
            <right_val>2.0808115369162924e-01</right_val></_></_>
        <_>
          <_>
            <feature>
              <rects>
                <_>
                  6 6 8 2 -1.</_>
                <_>
                  10 6 4 2 2.</_></rects>
              <tilted>0</tilted></feature>
            <threshold>-4.6730777248740196e-03</threshold>
            <left_val>6.4641753509337196e-01</left_val>
            <right_val>-3.2038036442639317e-01</right_val></_></_>
        <_>
          <_>
            <feature>
              <rects>
                <_>
                  11 10 6 6 -1.</_>
                <_>
                  11 10 3 3 2.</_>
                <_>
                  14 13 3 3 2.</_></rects>
              <tilted>0</tilted></feature>
            <threshold>-5.2730971947312355e-04</threshold>
            <left_val>4.7729922483642617e-01</left_val>
            <right_val>-3.0211881651017186e-01</right_val></_></_>
        <_>
          <_>
            <feature>
              <rects>
                <_>
                  9 12 14 4 -1.</_>
                <_>
                  9 12 7 2 2.</_>
                <_>
                  16 14 7 2 2.</_></rects>
              <tilted>0</tilted></feature>
            <threshold>3.5249358043074608e-03</threshold>
            <left_val>-2.6179960120400592e-01</left_val>
            <right_val>5.5138199688046630e-01</right_val></_></_></trees>
      <stage_threshold>-6.8861716985702515e-01</stage_threshold>
      <parent>12</parent>
      <next>-1</next></_>
    <_>
      <trees>
        <_>
          <_>
            <feature>
              <rects>
                <_>
                  23 4 1 16 -1.</_>
                <_>
                  23 12 1 8 2.</_></rects>
              <tilted>0</tilted></feature>
            <threshold>1.2119724415242672e-03</threshold>
            <left_val>3.5943060498220697e-01</left_val>
            <right_val>-5.5555555555555625e-01</right_val></_></_>
        <_>
          <_>
            <feature>
              <rects>
                <_>
                  0 0 17 4 -1.</_>
                <_>
                  0 2 17 2 2.</_></rects>
              <tilted>0</tilted></feature>
            <threshold>-8.5909254848957062e-03</threshold>
            <left_val>4.6561175719165154e-01</left_val>
            <right_val>-3.3485743305403282e-01</right_val></_></_>
        <_>
          <_>
            <feature>
              <rects>
                <_>
                  10 12 1 9 -1.</_>
                <_>
                  10 15 1 3 3.</_></rects>
              <tilted>0</tilted></feature>
            <threshold>5.0047943368554115e-03</threshold>
            <left_val>-2.2948106009628660e-01</left_val>
            <right_val>6.7462228294659221e-01</right_val></_></_>
        <_>
          <_>
            <feature>
              <rects>
                <_>
                  11 9 1 6 -1.</_>
                <_>
                  11 11 1 2 3.</_></rects>
              <tilted>0</tilted></feature>
            <threshold>3.8320810999721289e-03</threshold>
            <left_val>-1.9980633669400574e-01</left_val>
            <right_val>7.8262609640053338e-01</right_val></_></_>
        <_>
          <_>
            <feature>
              <rects>
                <_>
                  15 20 7 4 -1.</_>
                <_>
                  15 22 7 2 2.</_></rects>
              <tilted>0</tilted></feature>
            <threshold>9.2682039394276217e-06</threshold>
            <left_val>-3.3276904308854072e-01</left_val>
            <right_val>4.1576737512461959e-01</right_val></_></_>
        <_>
          <_>
            <feature>
              <rects>
                <_>
                  13 11 6 10 -1.</_>
                <_>
                  15 11 2 10 3.</_></rects>
              <tilted>0</tilted></feature>
            <threshold>1.5158153139054775e-02</threshold>
            <left_val>-2.0644861223583238e-01</left_val>
            <right_val>6.5394096426146919e-01</right_val></_></_>
        <_>
          <_>
            <feature>
              <rects>
                <_>
                  14 7 8 1 -1.</_>
                <_>
                  18 7 4 1 2.</_></rects>
              <tilted>0</tilted></feature>
            <threshold>1.3582874998974148e-05</threshold>
            <left_val>-3.6626221982473084e-01</left_val>
            <right_val>4.9663441681266601e-01</right_val></_></_>
        <_>
          <_>
            <feature>
              <rects>
                <_>
                  9 22 4 1 -1.</_>
                <_>
                  11 22 2 1 2.</_></rects>
              <tilted>0</tilted></feature>
            <threshold>-2.2863953199703246e-04</threshold>
            <left_val>-7.0046903054114062e-01</left_val>
            <right_val>2.5384646103551689e-01</right_val></_></_>
        <_>
          <_>
            <feature>
              <rects>
                <_>
                  1 17 10 6 -1.</_>
                <_>
                  6 17 5 6 2.</_></rects>
              <tilted>0</tilted></feature>
            <threshold>1.1541445739567280e-02</threshold>
            <left_val>-3.0209272522718200e-01</left_val>
            <right_val>5.2011498625069386e-01</right_val></_></_></trees>
      <stage_threshold>-7.0096176862716675e-01</stage_threshold>
      <parent>13</parent>
      <next>-1</next></_></stages></cascade>
</opencv_storage>
